{
    "shape": [
        9,
        5,
        3,
        1
    ],
    "weights": [
        0.8917927742004395,
        -0.6288361549377441,
        0.6854538917541504,
        0.8721163272857666,
        -0.793586015701294,
        0.7934234142303467,
        0.09816849231719971,
        -0.09487259387969971,
        0.38228747248649599,
        0.20239555835723878,
        -0.5537114143371582,
        0.7404224872589111,
        0.5903103351593018,
        -0.6057989597320557,
        -0.06044328212738037,
        -0.17809927463531495,
        0.5761351585388184,
        0.35071584582328799,
        -0.03245198726654053,
        -0.09864199161529541,
        0.09632575511932373,
        -0.9759793281555176,
        0.5074275732040405,
        0.4371475875377655,
        -0.8388051986694336,
        -0.04864370822906494,
        -0.20586144924163819,
        0.2951814830303192,
        0.7747251987457275,
        -0.08710873126983643,
        -0.05764615535736084,
        -0.8307223320007324,
        -0.36715853214263918,
        -0.006931185722351074,
        -0.26360857486724856,
        -0.306660532951355,
        -0.8737602233886719,
        0.9427626132965088,
        -0.14750277996063233,
        -0.19559037685394288,
        -0.5973188877105713,
        0.22742021083831788,
        -0.44834983348846438,
        -0.7210144996643066,
        -0.3272339105606079,
        -0.08035266399383545,
        -0.8711504936218262,
        0.6044355034828186,
        0.12692558765411378,
        0.8787827491760254,
        -0.353047251701355,
        -0.00038874149322509766,
        0.7838332653045654,
        0.177698016166687,
        0.41980811953544619,
        0.373000830411911,
        -0.5024120807647705,
        0.18500959873199464,
        -0.7903366088867188,
        -0.23561298847198487,
        0.3615832030773163,
        0.29855939745903017,
        -0.4973567724227905
    ],
    "biases": [
        0.9515094757080078,
        0.4142708480358124,
        -0.7560727596282959,
        -0.29641807079315188,
        0.7205319404602051,
        -0.7709081172943115,
        0.26374122500419619,
        -0.2991830110549927,
        -0.08215534687042237
    ],
    "hiddenLayerActivation": 0,
    "outputActivation": 0
}